<?xml version="1.0"?>
<opencv_storage>
<cascade>
  <stageType>BOOST</stageType>
  <featureType>LBP</featureType>
  <height>20</height>
  <width>20</width>
  <stageParams>
    <boostType>GAB</boostType>
    <minHitRate>9.9900001287460327e-01</minHitRate>
    <maxFalseAlarm>5.0000000000000000e-01</maxFalseAlarm>
    <weightTrimRate>9.4999999999999996e-01</weightTrimRate>
    <maxDepth>1</maxDepth>
    <maxWeakCount>1000</maxWeakCount></stageParams>
  <featureParams>
    <maxCatCount>256</maxCatCount>
    <featSize>1</featSize></featureParams>
  <stageNum>25</stageNum>
  <stages>
    <!-- stage 0 -->
    <_>
      <maxWeakCount>3</maxWeakCount>
      <stageThreshold>-1.1483691930770874e+00</stageThreshold>
      <weakClassifiers>
        <_>
          <internalNodes>
            0 -1 30 -217845253 1560281360 -1727899301 1565610281
            1342181610 134217864 1480802715 521076779</internalNodes>
          <leafValues>
            -8.9924973249435425e-01 7.7901577949523926e-01</leafValues></_>
        <_>
          <internalNodes>
            0 -1 26 -784205353 -820965357 1358958937 1291927699
            1073791227 1225261194 1342278603 252015055</internalNodes>
          <leafValues>
            -8.6570042371749878e-01 6.0339796543121338e-01</leafValues></_>
        <_>
          <internalNodes>
            0 -1 95 -171781384 -1962766336 1157695745 522027281
            -670519877 -2004739967 -2012706405 152693195</internalNodes>
          <leafValues>
            -7.8342503309249878e-01 6.1658096313476563e-01</leafValues></_></weakClassifiers></_>
    <!-- stage 1 -->
    <_>
      <maxWeakCount>4</maxWeakCount>
      <stageThreshold>-1.5273361206054688e+00</stageThreshold>
      <weakClassifiers>
        <_>
          <internalNodes>
            0 -1 12 -786437893 -582892077 1090634191 -553432825
            139198632 151060633 176357791 2080063707</internalNodes>
          <leafValues>
            -7.5000000000000000e-01 6.8571430444717407e-01</leafValues></_>
        <_>
          <internalNodes>
            0 -1 140 -209521984 -788037533 36868 -754204597 369289370
            50495488 8577274 938468351</internalNodes>
          <leafValues>
            -6.9008606672286987e-01 6.5808767080307007e-01</leafValues></_>
        <_>
          <internalNodes>
            0 -1 31 -678178401 -1190064045 -787263010 387404055
            -880762629 126058633 142651839 833029075</internalNodes>
          <leafValues>
            -8.4126907587051392e-01 5.3523671627044678e-01</leafValues></_>
        <_>
          <internalNodes>
            0 -1 99 -1744776976 -1782579199 285249552 -1254686720
            -2139061592 -1476395008 8421544 -1617297248</internalNodes>
          <leafValues>
            -6.2248677015304565e-01 6.7480671405792236e-01</leafValues></_></weakClassifiers></_>
    <!-- stage 2 -->
    <_>
      <maxWeakCount>5</maxWeakCount>
      <stageThreshold>-6.1856961250305176e-01</stageThreshold>
      <weakClassifiers>
        <_>
          <internalNodes>
            0 -1 18 -799093528 -924127550 251537088 -495980768
            -545356146 1147785169 -2018605938 -255863361</internalNodes>
          <leafValues>
            -6.2287759780883789e-01 7.8226709365844727e-01</leafValues></_>
        <_>
          <internalNodes>
            0 -1 157 -5506430 -34607392 -319820256 -751044960 -8534526
            1148706173 -971798782 -211814953</internalNodes>
          <leafValues>
            -5.7737571001052856e-01 7.8836876153945923e-01</leafValues></_>
        <_>
          <internalNodes>
            0 -1 25 -103941153 -170606155 -268320191 1472672067
            335601326 412747969 1288094717 2136949075</internalNodes>
          <leafValues>
            -7.9108524322509766e-01 5.7515472173690796e-01</leafValues></_>
        <_>
          <internalNodes>
            0 -1 115 -1811413872 -1325399936 -1879044008 897843408
            -2139062134 -1341751296 -251625256 -2003107824</internalNodes>
          <leafValues>
            -6.6281789541244507e-01 6.4967238903045654e-01</leafValues></_>
        <_>
          <internalNodes>
            0 -1 52 -1279312992 -440664338 -17302752 -146669658
            -68158592 1206976356 -1255802908 -674512916</internalNodes>
          <leafValues>
            -6.4264798164367676e-01 7.5250262022018433e-01</leafValues></_></weakClassifiers></_>
    <!-- stage 3 -->
    <_>
      <maxWeakCount>3</maxWeakCount>
      <stageThreshold>-8.4974366426467896e-01</stageThreshold>
      <weakClassifiers>
        <_>
          <internalNodes>
            0 -1 130 -1342013286 -2112012160 464 -803993600 -1879010912
            -1065303934 -1509908342 -133660672</internalNodes>
          <leafValues>
            -7.9354840517044067e-01 6.8333333730697632e-01</leafValues></_>
        <_>
          <internalNodes>
            0 -1 102 -1725936416 -1619980572 2113458165 -578921403
            -1648568839 -134817803 -1668371206 -1684406088</internalNodes>
          <leafValues>
            -6.1955368518829346e-01 8.0084639787673950e-01</leafValues></_>
        <_>
          <internalNodes>
            0 -1 61 -653066081 168820928 -1861004907 -2141437927
            872415408 134774912 -796867696 -557280608</internalNodes>
          <leafValues>
            -8.5196900367736816e-01 5.6335842609405518e-01</leafValues></_></weakClassifiers></_>
    <!-- stage 4 -->
    <_>
      <maxWeakCount>5</maxWeakCount>
      <stageThreshold>-1.0505104064941406e+00</stageThreshold>
      <weakClassifiers>
        <_>
          <internalNodes>
            0 -1 72 2073686463 803206473 -1693371949 -1512203831
            2030156532 1084260740 -75310155 -268898060</internalNodes>
          <leafValues>
            -7.9259258508682251e-01 5.3500002622604370e-01</leafValues></_>
        <_>
          <internalNodes>
            0 -1 108 -544088609 -1396190989 -1877913137 -368601633
            -125699653 -293109632 -1089749033 -1594031691</internalNodes>
          <leafValues>
            -7.8158974647521973e-01 4.5200732350349426e-01</leafValues></_>
        <_>
          <internalNodes>
            0 -1 6 -1291586998 -1064320542 1615036672 -509624015
            -2128086526 1103282858 -762841018 -546868409</internalNodes>
          <leafValues>
            -7.0630085468292236e-01 4.7643879055976868e-01</leafValues></_>
        <_>
          <internalNodes>
            0 -1 155 -5769598 -403968280 775747232 -76808326 -139295232
            74765939 -1498233278 -478414385</internalNodes>
          <leafValues>
            -5.5109500885009766e-01 6.6403484344482422e-01</leafValues></_>
        <_>
          <internalNodes>
            0 -1 33 -744763170 1195507850 65536 1082871873 -922056566
            1078001665 17348224 1348442811</internalNodes>
          <leafValues>
            -6.1680173873901367e-01 6.2192022800445557e-01</leafValues></_></weakClassifiers></_>
    <!-- stage 5 -->
    <_>
      <maxWeakCount>5</maxWeakCount>
      <stageThreshold>-1.9810595512390137e+00</stageThreshold>
      <weakClassifiers>
        <_>
          <internalNodes>
            0 -1 148 -542910038 -1728020288 1073809536 387780737
            -754335061 131201 -1861225741 330818207</internalNodes>
          <leafValues>
            -6.9570267200469971e-01 5.2132290601730347e-01</leafValues></_>
        <_>
          <internalNodes>
            0 -1 32 -748490750 -2113723998 1361117216 -1039187711
            -1836871672 1073873408 -2088074877 -206601733</internalNodes>
          <leafValues>
            -6.0217511653900146e-01 6.0266768932342529e-01</leafValues></_>
        <_>
          <internalNodes>
            0 -1 142 -515647286 -294927994 268517408 -262827998
            -1584664054 1610748034 1342288103 -724572241</internalNodes>
          <leafValues>
            -6.2198889255523682e-01 5.8792030811309814e-01</leafValues></_>
        <_>
          <internalNodes>
            0 -1 65 964711560 1400995912 335548695 424759297 -131548453
            -1568038770 436208575 254476427</internalNodes>
          <leafValues>
            -7.1610105037689209e-01 4.9154409766197205e-01</leafValues></_>
        <_>
          <internalNodes>
            0 -1 19 -1058070 -4357 -1560408062 -8257 -1088106294
            2137216887 -176753169 1729566687</internalNodes>
          <leafValues>
            -5.6211733818054199e-01 6.4429140090942383e-01</leafValues></_></weakClassifiers></_>
    <!-- stage 6 -->
    <_>
      <maxWeakCount>5</maxWeakCount>
      <stageThreshold>-8.2286572456359863e-01</stageThreshold>
      <weakClassifiers>
        <_>
          <internalNodes>
            0 -1 68 -1707552520 -13102896 -1094780673 -671394467
            -1104502786 -1076314689 1048504319 -1106620616</internalNodes>
          <leafValues>
            -5.4337900876998901e-01 6.5027320384979248e-01</leafValues></_>
        <_>
          <internalNodes>
            0 -1 89 -1679232513 -1726482223 16980033 -1693372203
            -1063218659 -1425981310 -1865234785 -2013249203</internalNodes>
          <leafValues>
            -6.8890404701232910e-01 4.8930618166923523e-01</leafValues></_>
        <_>
          <internalNodes>
            0 -1 14 -700284918 -527826944 -1073577918 -234287104
            -515858422 -1073709048 -2104917269 -773881697</internalNodes>
          <leafValues>
            -5.9362459182739258e-01 5.8461809158325195e-01</leafValues></_>
        <_>
          <internalNodes>
            0 -1 143 -754255158 -741392372 402706560 -740141557
            1695209514 -1052049408 -2012814882 -2025335841</internalNodes>
          <leafValues>
            -6.4220017194747925e-01 5.3704768419265747e-01</leafValues></_>
        <_>
          <internalNodes>
            0 -1 93 -1306906138 587388352 -1072688896 -997490351
            -1008156502 -1601699712 -226377590 -290659624</internalNodes>
          <leafValues>
            -7.1221601963043213e-01 4.8230296373367310e-01</leafValues></_></weakClassifiers></_>
    <!-- stage 7 -->
    <_>
      <maxWeakCount>5</maxWeakCount>
      <stageThreshold>-8.5420358180999756e-01</stageThreshold>
      <weakClassifiers>
        <_>
          <internalNodes>
            0 -1 47 -737132328 -649068520 -2013243685 1368850441
            419463368 -83885952 1245852331 705307182</internalNodes>
          <leafValues>
            -6.7123287916183472e-01 5.1851850748062134e-01</leafValues></_>
        <_>
          <internalNodes>
            0 -1 85 -1675046696 1529474754 146670683 456727725
            -957051746 -1905262593 456585357 -1741141976</internalNodes>
          <leafValues>
            -5.3249645233154297e-01 6.3155472278594971e-01</leafValues></_>
        <_>
          <internalNodes>
            0 -1 50 31643 -48955373 218104209 262099225 539019473
            -1207893950 -251500033 59767771</internalNodes>
          <leafValues>
            -7.1431136131286621e-01 4.7418922185897827e-01</leafValues></_>
        <_>
          <internalNodes>
            0 -1 73 1478656130 323059851 -1073184235 1511117137
            -939423275 -134168448 1091126405 -133689168</internalNodes>
          <leafValues>
            -7.0022159814834595e-01 5.1062262058258057e-01</leafValues></_>
        <_>
          <internalNodes>
            0 -1 13 -220544802 -1056243712 268468352 1346457668
            -926754674 -2122285056 -2146786417 -767049509</internalNodes>
          <leafValues>
            -5.8732080459594727e-01 6.0000753402709961e-01</leafValues></_></weakClassifiers></_>
    <!-- stage 8 -->
    <_>
      <maxWeakCount>7</maxWeakCount>
      <stageThreshold>-1.0335159301757813e+00</stageThreshold>
      <weakClassifiers>
        <_>
          <internalNodes>
            0 -1 43 -805187395 1373044763 -1878434465 -804240873
            1678412015 1889009800 -2147313477 -257850705</internalNodes>
          <leafValues>
            -7.3277074098587036e-01 4.0107774734497070e-01</leafValues></_>
        <_>
          <internalNodes>
            0 -1 87 -669460264 -548921816 173732433 1568001140
            -1736779092 -1931542821 1521898939 -1693966581</internalNodes>
          <leafValues>
            -5.0195884704589844e-01 6.4011192321777344e-01</leafValues></_>
        <_>
          <internalNodes>
            0 -1 3 1363232981 1092347293 75520285 -179318393 -796831503
            -895882872 -1037941797 1610576867</internalNodes>
          <leafValues>
            -6.8761569261550903e-01 4.2803862690925598e-01</leafValues></_>
        <_>
          <internalNodes>
            0 -1 64 -789004134 -67469322 -1732313127 -1791852614
            -33696516 -1946419203 -706824720 -1731304048</internalNodes>
          <leafValues>
            -4.3752121925354004e-01 6.6193848848342896e-01</leafValues></_>
        <_>
          <internalNodes>
            0 -1 147 -32854 -14659928 -1146570112 1604959724 -6221
            1203634165 2013134323 -705699881</internalNodes>
          <leafValues>
            -5.2047121524810791e-01 5.7223200798034668e-01</leafValues></_>
        <_>
          <internalNodes>
            0 -1 118 -800632634 -334295022 1346426048 -670752749
            -796827510 -1300234240 -2146919686 -728115061</internalNodes>
          <leafValues>
            -7.9798430204391479e-01 3.7424394488334656e-01</leafValues></_>
        <_>
          <internalNodes>
            0 -1 34 -83373168 1099088144 1090519112 -788426752
            1896350344 -939524096 -251641622 2072725871</internalNodes>
          <leafValues>
            -6.9672691822052002e-01 4.1825443506240845e-01</leafValues></_></weakClassifiers></_>
    <!-- stage 9 -->
    <_>
      <maxWeakCount>6</maxWeakCount>
      <stageThreshold>-1.1884353160858154e+00</stageThreshold>
      <weakClassifiers>
        <_>
          <internalNodes>
            0 -1 70 -211693153 599491769 217245 -368885611 145261215
            1217986577 -1182487805 -2308539</internalNodes>
          <leafValues>
            -7.1465969085693359e-01 4.3820226192474365e-01</leafValues></_>
        <_>
          <internalNodes>
            0 -1 117 -667394856 -184529608 -1702948257 -545301019
            -1703761734 -85328513 -1959219205 -1145434631</internalNodes>
          <leafValues>
            -4.6391120553016663e-01 6.9667917490005493e-01</leafValues></_>
        <_>
          <internalNodes>
            0 -1 1 393583426 -1220021350 -1810824816 -1856912749
            -1874593037 -1966765943 -901666315 -82507197</internalNodes>
          <leafValues>
            -6.7233484983444214e-01 4.2023506760597229e-01</leafValues></_>
        <_>
          <internalNodes>
            0 -1 146 -1315192430 -1033760315 -1878969854 -690810877
            -1718972219 -1610547200 -257906176 -1165440888</internalNodes>
          <leafValues>
            -5.8429801464080811e-01 5.2244597673416138e-01</leafValues></_>
        <_>
          <internalNodes>
            0 -1 11 -30486294 -148308054 -1095090458 -714941280
            -282140977 1327808484 -412418385 -780952101</internalNodes>
          <leafValues>
            -5.0561648607254028e-01 5.6532824039459229e-01</leafValues></_>
        <_>
          <internalNodes>
            0 -1 55 -1733273358 -545633752 -1828718638 2013256828
            -1925258584 -1427214499 376343803 -1086831138</internalNodes>
          <leafValues>
            -4.4692894816398621e-01 6.8902230262756348e-01</leafValues></_></weakClassifiers></_>
    <!-- stage 10 -->
    <_>
      <maxWeakCount>7</maxWeakCount>
      <stageThreshold>-1.7435404062271118e+00</stageThreshold>
      <weakClassifiers>
        <_>
          <internalNodes>
            0 -1 135 -116919589 -503230079 -1876918173 -598376147
            -100220277 -1073700864 -360081005 -90668416</internalNodes>
          <leafValues>
            -5.6402117013931274e-01 5.0046950578689575e-01</leafValues></_>
        <_>
          <internalNodes>
            0 -1 82 1396867804 1006076125 285295003 189622491 -787312456
            -68648814 -1994812943 -10822248</internalNodes>
          <leafValues>
            -5.7707387208938599e-01 5.0400191545486450e-01</leafValues></_>
        <_>
          <internalNodes>
            0 -1 8 -762396470 1073931008 1375916754 -1052323199
            -800422501 -1073709054 -767110517 -780408101</internalNodes>
          <leafValues>
            -5.0287747383117676e-01 5.3086203336715698e-01</leafValues></_>
        <_>
          <internalNodes>
            0 -1 131 -1587555876 -1503068144 -264119807 -789657470
            -1609913974 -637337438 -1878934960 -225935216</internalNodes>
          <leafValues>
            -6.8017363548278809e-01 4.1665840148925781e-01</leafValues></_>
        <_>
          <internalNodes>
            0 -1 105 -693055336 -618108695 -1814174789 1567966693
            -1895899468 107773814 -1640587265 -552987380</internalNodes>
          <leafValues>
            -4.8032307624816895e-01 5.8697581291198730e-01</leafValues></_>
        <_>
          <internalNodes>
            0 -1 154 -1224498782 -980991936 233472 -246202101 18055234
            1074921488 -1610421582 -201348721</internalNodes>
          <leafValues>
            -5.3090345859527588e-01 5.5290073156356812e-01</leafValues></_>
        <_>
          <internalNodes>
            0 -1 67 -1341075240 428015720 1073746329 328241153
            -1742565214 -2012479310 32936 187179334</internalNodes>
          <leafValues>
            -6.3852888345718384e-01 4.9500024318695068e-01</leafValues></_></weakClassifiers></_>
    <!-- stage 11 -->
    <_>
      <maxWeakCount>6</maxWeakCount>
      <stageThreshold>-1.6410645246505737e+00</stageThreshold>
      <weakClassifiers>
        <_>
          <internalNodes>
            0 -1 97 -190057996 13914366 352338335 -2134720039 -536833868
            -1190624085 -1173313519 -11891992</internalNodes>
          <leafValues>
            -7.3170733451843262e-01 3.5450518131256104e-01</leafValues></_>
        <_>
          <internalNodes>
            0 -1 113 -1677682504 494960688 -1858026497 -1089781665
            -1868398421 503349644 1753356459 313206857</internalNodes>
          <leafValues>
            -7.0893108844757080e-01 3.4949380159378052e-01</leafValues></_>
        <_>
          <internalNodes>
            0 -1 20 -17305654 -295014742 1757299714 -232427601 -33629014
            -1000046798 -2067996961 -214509569</internalNodes>
          <leafValues>
            -4.7919404506683350e-01 5.6144672632217407e-01</leafValues></_>
        <_>
          <internalNodes>
            0 -1 27 -716048385 -66997478 -1878982649 -1258106863
            1213727996 1342185634 -391836789 2126862412</internalNodes>
          <leafValues>
            -7.6145291328430176e-01 3.2181376218795776e-01</leafValues></_>
        <_>
          <internalNodes>
            0 -1 21 1099027662 -783220671 268435586 -804974323 33589376
            2014838786 587774623 1930950639</internalNodes>
          <leafValues>
            -5.6098145246505737e-01 4.5340868830680847e-01</leafValues></_>
        <_>
          <internalNodes>
            0 -1 62 -740863840 -754860032 1090519171 -1859075712
            -889190207 -930569080 -83846216 -1879013248</internalNodes>
          <leafValues>
            -5.6827688217163086e-01 4.9670070409774780e-01</leafValues></_></weakClassifiers></_>
    <!-- stage 12 -->
    <_>
      <maxWeakCount>6</maxWeakCount>
      <stageThreshold>-1.4575273990631104e+00</stageThreshold>
      <weakClassifiers>
        <_>
          <internalNodes>
            0 -1 81 978314743 -1704991937 1073809667 -1881169334
            1080183169 -25009981 -897511287 -359509992</internalNodes>
          <leafValues>
            -6.3731932640075684e-01 3.8831064105033875e-01</leafValues></_>
        <_>
          <internalNodes>
            0 -1 149 -741216022 -251092984 1360101760 -1323704167
            -794779493 671121548 -352071509 1474283741</internalNodes>
          <leafValues>
            -5.6834256649017334e-01 4.4032821059226990e-01</leafValues></_>
        <_>
          <internalNodes>
            0 -1 45 -642494264 -201195376 1073824930 1381122440
            -1879046136 -669482880 -2010601253 -1214623589</internalNodes>
          <leafValues>
            -4.9244368076324463e-01 5.1453691720962524e-01</leafValues></_>
        <_>
          <internalNodes>
            0 -1 41 -779553961 1464128788 -1040022975 452990994
            -636703609 421200009 1413728274 526119583</internalNodes>
          <leafValues>
            -7.0623832941055298e-01 4.0604719519615173e-01</leafValues></_>
        <_>
          <internalNodes>
            0 -1 133 -904970234 -99282941 1476458527 1495511123
            -1576361270 -1274970110 -671042917 -1601179445</internalNodes>
          <leafValues>
            -6.0778659582138062e-01 4.1198641061782837e-01</leafValues></_>
        <_>
          <internalNodes>
            0 -1 124 -206561840 -1719566192 1628508441 -778550332
            -528448896 -935297024 -1282897784 -1388314432</internalNodes>
          <leafValues>
            -5.6635320186614990e-01 4.7473105788230896e-01</leafValues></_></weakClassifiers></_>
    <!-- stage 13 -->
    <_>
      <maxWeakCount>6</maxWeakCount>
      <stageThreshold>-1.2932162284851074e+00</stageThreshold>
      <weakClassifiers>
        <_>
          <internalNodes>
            0 -1 60 -618923521 115052953 -1861676705 685457493
            1350639767 78336456 -1935648204 -21190443</internalNodes>
          <leafValues>
            -7.8812199831008911e-01 3.5400143265724182e-01</leafValues></_>
        <_>
          <internalNodes>
            0 -1 153 -10234880 -778615551 21366792 1464066051 -134028608
            302514177 1342959819 -753937957</internalNodes>
          <leafValues>
            -5.1593858003616333e-01 4.8022598028182983e-01</leafValues></_>
        <_>
          <internalNodes>
            0 -1 86 -591864583 -543073056 1610522463 2010868957 -336685
            -1615954049 -1641529089 -1960181511</internalNodes>
          <leafValues>
            -4.1155514121055603e-01 6.3823252916336060e-01</leafValues></_>
        <_>
          <internalNodes>
            0 -1 46 -243755872 -1819164664 -520093634 1426587777
            1392528834 -1021443678 1225266075 119489094</internalNodes>
          <leafValues>
            -5.5502247810363770e-01 4.3535673618316650e-01</leafValues></_>
        <_>
          <internalNodes>
            0 -1 152 -1825574198 1766490118 1483739138 828702747
            -494149624 -536805376 574784007 -782501765</internalNodes>
          <leafValues>
            -5.3059023618698120e-01 4.3416747450828552e-01</leafValues></_>
        <_>
          <internalNodes>
            0 -1 125 -346494948 1216397712 1074271059 -249786216
            805863672 295701056 -1182604632 -133377920</internalNodes>
          <leafValues>
            -5.9886884689331055e-01 4.0345367789268494e-01</leafValues></_></weakClassifiers></_>
    <!-- stage 14 -->
    <_>
      <maxWeakCount>8</maxWeakCount>
      <stageThreshold>-1.3351464271545410e+00</stageThreshold>
      <weakClassifiers>
        <_>
          <internalNodes>
            0 -1 122 1363230941 -2012213159 285284573 437846411
            -1071595104 -5667712 -1778327373 -50024428</internalNodes>
          <leafValues>
            -5.9163594245910645e-01 4.0183791518211365e-01</leafValues></_>
        <_>
          <internalNodes>
            0 -1 69 -642720527 -1615868904 2097020533 1533631805
            -826359586 -1630598148 -1635850561 -1623326499</internalNodes>
          <leafValues>
            -3.8005307316780090e-01 6.5812462568283081e-01</leafValues></_>
        <_>
          <internalNodes>
            0 -1 36 -75957028 -1310801 -160035230 -223654302 -575091574
            -1754931358 -755462769 -209453121</internalNodes>
          <leafValues>
            -3.4995397925376892e-01 6.4670950174331665e-01</leafValues></_>
        <_>
          <internalNodes>
            0 -1 132 -174531592 1057506440 -2125245824 -1279274835
            -1744240536 -1400698712 17308455 300621995</internalNodes>
          <leafValues>
            -6.3583534955978394e-01 3.8531377911567688e-01</leafValues></_>
        <_>
          <internalNodes>
            0 -1 4 304078338 -2138836154 1418207472 -1315979135
            1354736538 1087094920 38511059 -522749885</internalNodes>
          <leafValues>
            -6.1535346508026123e-01 3.9869406819343567e-01</leafValues></_>
        <_>
          <internalNodes>
            0 -1 107 122018143 -2108464997 2080653653 -1978478507
            -2113883494 -134053887 -1056800733 -1449623408</internalNodes>
          <leafValues>
            -8.7552124261856079e-01 3.1213852763175964e-01</leafValues></_>
        <_>
          <internalNodes>
            0 -1 74 -796894518 -204434024 6417 427835416 -805250848
            -190283640 134266977 -126907768</internalNodes>
          <leafValues>
            -4.7371906042098999e-01 5.7287675142288208e-01</leafValues></_>
        <_>
          <internalNodes>
            0 -1 136 -754625809 1610678545 1107296458 -735895344
            -804158973 -1869610989 -636937281 -1268544845</internalNodes>
          <leafValues>
            -7.0305925607681274e-01 3.7811675667762756e-01</leafValues></_></weakClassifiers></_>
    <!-- stage 15 -->
    <_>
      <maxWeakCount>7</maxWeakCount>
      <stageThreshold>-9.6259737014770508e-01</stageThreshold>
      <weakClassifiers>
        <_>
          <internalNodes>
            0 -1 75 -1280812868 -134586664 1521933115 402391032 -8454148
            -1627463174 -4285199 -1899458408</internalNodes>
          <leafValues>
            -4.2057761549949646e-01 5.1662969589233398e-01</leafValues></_>
        <_>
          <internalNodes>
            0 -1 56 620779277 -2686571 67118343 -1387970081 1879064715
            -256687997 784658254 575656651</internalNodes>
          <leafValues>
            -6.1309719085693359e-01 3.7127596139907837e-01</leafValues></_>
        <_>
          <internalNodes>
            0 -1 144 -484051986 -842985408 35850306 -148434487
            -1324227773 -2129657792 -1039948141 1428930299</internalNodes>
          <leafValues>
            -6.1709427833557129e-01 3.8183009624481201e-01</leafValues></_>
        <_>
          <internalNodes>
            0 -1 92 2064087671 135266385 -234875431 -560430576 311453866
            1930461472 -1191077133 -45043676</internalNodes>
          <leafValues>
            -6.6182684898376465e-01 3.6989659070968628e-01</leafValues></_>
        <_>
          <internalNodes>
            0 -1 116 857266424 2135932928 319967455 1431913465
            -1157588856 -1952192504 537051305 -2004844157</internalNodes>
          <leafValues>
            -5.0717806816101074e-01 4.8203945159912109e-01</leafValues></_>
        <_>
          <internalNodes>
            0 -1 37 -86576960 -787832620 23694 -776522664 -1693922932
            -249003877 19452331 -9999513</internalNodes>
          <leafValues>
            -5.0375527143478394e-01 4.7396779060363770e-01</leafValues></_>
        <_>
          <internalNodes>
            0 -1 88 -1204201350 -612302712 1099120728 1544622301
            -1719631694 -260046720 272025987 1057540353</internalNodes>
          <leafValues>
            -5.5957293510437012e-01 4.4337198138237000e-01</leafValues></_></weakClassifiers></_>
    <!-- stage 16 -->
    <_>
      <maxWeakCount>8</maxWeakCount>
      <stageThreshold>-1.4636019468307495e+00</stageThreshold>
      <weakClassifiers>
        <_>
          <internalNodes>
            0 -1 28 -98316278 -1056472952 269045888 -1039941632
            -213652978 541294593 268616335 -754464517</internalNodes>
          <leafValues>
            -4.7131147980690002e-01 4.4487428665161133e-01</leafValues></_>
        <_>
          <internalNodes>
            0 -1 145 -111946882 -1694202044 185114712 151519336
            1149280488 -1995849215 1136482361 2007888357</internalNodes>
          <leafValues>
            -6.0972738265991211e-01 3.5622584819793701e-01</leafValues></_>
        <_>
          <internalNodes>
            0 -1 71 1967650807 -1991130733 -2130569881 -2133769913
            2013987555 -1577025152 -1725829359 -86445155</internalNodes>
          <leafValues>
            -5.9674513339996338e-01 3.6317443847656250e-01</leafValues></_>
        <_>
          <internalNodes>
            0 -1 126 -1676947069 -432995816 -2013196262 -61236967
            -1056833383 -1325334526 171999847 -24367040</internalNodes>
          <leafValues>
            -6.8598335981369019e-01 3.2915681600570679e-01</leafValues></_>
        <_>
          <internalNodes>
            0 -1 128 -12525968 -576945768 21016969 1503092889 -796354530
            -1701672794 170314 866069014</internalNodes>
          <leafValues>
            -5.0715482234954834e-01 4.2833235859870911e-01</leafValues></_>
        <_>
          <internalNodes>
            0 -1 40 1644213523 -216943808 92471966 386205807 -1662973718
            -762249077 990481547 868219835</internalNodes>
          <leafValues>
            -5.9758633375167847e-01 3.8175302743911743e-01</leafValues></_>
        <_>
          <internalNodes>
            0 -1 78 -650538278 -626702359 1518296529 1568668901
            -1896165734 -850407594 880466414 -1709307622</internalNodes>
          <leafValues>
            -4.3158856034278870e-01 5.8576363325119019e-01</leafValues></_>
        <_>
          <internalNodes>
            0 -1 151 -880020798 -1056505854 -2113777664 1090720259
            1613103234 16842802 8552832 1467466671</internalNodes>
          <leafValues>
            -5.0451791286468506e-01 4.7110196948051453e-01</leafValues></_></weakClassifiers></_>
    <!-- stage 17 -->
    <_>
      <maxWeakCount>9</maxWeakCount>
      <stageThreshold>-1.1792964935302734e+00</stageThreshold>
      <weakClassifiers>
        <_>
          <internalNodes>
            0 -1 91 1803899231 -1869359841 -2146336731 -2121871145
            -394010728 -465403883 -922645746 -275134220</internalNodes>
          <leafValues>
            -5.6385540962219238e-01 3.9661017060279846e-01</leafValues></_>
        <_>
          <internalNodes>
            0 -1 9 -203509042 1368130176 1342230548 1900079168
            -1043291182 144965640 21547023 1935011983</internalNodes>
          <leafValues>
            -4.9658206105232239e-01 4.2783397436141968e-01</leafValues></_>
        <_>
          <internalNodes>
            0 -1 22 1884043382 -216858529 -536457399 373498000 855679486
            -216367008 173705279 721821996</internalNodes>
          <leafValues>
            -5.9639644622802734e-01 3.4960809350013733e-01</leafValues></_>
        <_>
          <internalNodes>
            0 -1 96 -1815072622 -381648768 353386589 -389184493
            -1593704446 -1199046528 -1441681240 -247147643</internalNodes>
          <leafValues>
            -5.1523476839065552e-01 4.1569367051124573e-01</leafValues></_>
        <_>
          <internalNodes>
            0 -1 16 -250088254 -794738685 307302400 1305542799
            -2147401718 272765586 -48555769 1549267539</internalNodes>
          <leafValues>
            -7.2679829597473145e-01 2.8140276670455933e-01</leafValues></_>
        <_>
          <internalNodes>
            0 -1 156 -748760286 -218021749 1073840130 1363165185
            -460799998 1107492882 -1064796157 -233080133</internalNodes>
          <leafValues>
            -5.6400829553604126e-01 3.9082604646682739e-01</leafValues></_>
        <_>
          <internalNodes>
            0 -1 77 -1244636995 -573308656 142815705 -1220706262
            -897386360 -275773439 -2139041630 -1958575656</internalNodes>
          <leafValues>
            -4.8982387781143188e-01 4.8321598768234253e-01</leafValues></_>
        <_>
          <internalNodes>
            0 -1 129 -929939206 -1072430952 269008901 -124628416
            1895961022 1611218944 722043112 -2011651712</internalNodes>
          <leafValues>
            -6.1542755365371704e-01 3.9287343621253967e-01</leafValues></_>
        <_>
          <internalNodes>
            0 -1 66 -215918156 -745865136 16912577 -184418039
            -1878347128 -2113822592 -2004637030 -1467801565</internalNodes>
          <leafValues>
            -4.2071986198425293e-01 5.9822613000869751e-01</leafValues></_></weakClassifiers></_>
    <!-- stage 18 -->
    <_>
      <maxWeakCount>7</maxWeakCount>
      <stageThreshold>-9.5023745298385620e-01</stageThreshold>
      <weakClassifiers>
        <_>
          <internalNodes>
            0 -1 42 2144336847 1502698432 67446277 -905723897 1480131308
            1887455360 -896896425 294392591</internalNodes>
          <leafValues>
            -7.5285172462463379e-01 2.6684635877609253e-01</leafValues></_>
        <_>
          <internalNodes>
            0 -1 111 -775371046 522256518 -2059058087 1461707007
            -1056910637 -91512576 1679823057 -664468207</internalNodes>
          <leafValues>
            -5.0707376003265381e-01 4.1246977448463440e-01</leafValues></_>
        <_>
          <internalNodes>
            0 -1 137 -1873554466 -527069159 402817486 -327413742
            940614019 -937377664 -434980022 -100661104</internalNodes>
          <leafValues>
            -6.9188511371612549e-01 2.9775932431221008e-01</leafValues></_>
        <_>
          <internalNodes>
            0 -1 23 -498548526 1499004928 254 -1794850812 -1575841144
            -1425440158 1049259 1800028857</internalNodes>
          <leafValues>
            -5.0072562694549561e-01 4.4328218698501587e-01</leafValues></_>
        <_>
          <internalNodes>
            0 -1 127 -876498024 -83705208 1098981120 1569971393
            570495555 -2147343988 704686170 924724736</internalNodes>
          <leafValues>
            -5.1392340660095215e-01 4.1247352957725525e-01</leafValues></_>
        <_>
          <internalNodes>
            0 -1 35 -67257205 -269504594 -491877152 -479511111
            2147114694 1666235833 -1238832050 -145490241</internalNodes>
          <leafValues>
            -3.8805165886878967e-01 5.7985007762908936e-01</leafValues></_>
        <_>
          <internalNodes>
            0 -1 79 -189178695 -5346112 1526657955 1584782581
            -1235364339 -681640107 -162273417 -1955980881</internalNodes>
          <leafValues>
            -4.3131107091903687e-01 5.0888323783874512e-01</leafValues></_></weakClassifiers></_>
    <!-- stage 19 -->
    <_>
      <maxWeakCount>8</maxWeakCount>
      <stageThreshold>-1.4423315525054932e+00</stageThreshold>
      <weakClassifiers>
        <_>
          <internalNodes>
            0 -1 53 -1274997865 1066996089 151011603 -2050807783
            -662693748 134775044 -1567913313 -468376701</internalNodes>
          <leafValues>
            -6.3283580541610718e-01 3.1641790270805359e-01</leafValues></_>
        <_>
          <internalNodes>
            0 -1 15 -639894326 -861531902 1086455876 1082295041
            -92229502 -402653184 -1341994865 1078193039</internalNodes>
          <leafValues>
            -6.1122345924377441e-01 3.1696867942810059e-01</leafValues></_>
        <_>
          <internalNodes>
            0 -1 104 -215229168 -547643623 -1813070223 398327165
            -1351637094 -1731199381 251088314 -1967155331</internalNodes>
          <leafValues>
            -3.8387718796730042e-01 5.3115081787109375e-01</leafValues></_>
        <_>
          <internalNodes>
            0 -1 83 929004510 580440536 286265743 -435210216 -1198518092
            -1039613414 1229032134 -556105544</internalNodes>
          <leafValues>
            -6.0935586690902710e-01 3.7829533219337463e-01</leafValues></_>
        <_>
          <internalNodes>
            0 -1 48 -707208970 -76908702 654208750 -218680480
            -1385640818 -1083719841 -1315376465 -1291141349</internalNodes>
          <leafValues>
            -3.9422726631164551e-01 5.6298577785491943e-01</leafValues></_>
        <_>
          <internalNodes>
            0 -1 2 814551232 -910966317 1048851 -547630589 1284278435
            -1966899099 5212801 1399259927</internalNodes>
          <leafValues>
            -6.6335248947143555e-01 3.3109983801841736e-01</leafValues></_>
        <_>
          <internalNodes>
            0 -1 123 2064138716 -1220721697 -1048258995 1036980494
            -1016839949 -922091471 -662009701 -308476920</internalNodes>
          <leafValues>
            -4.7089061141014099e-01 4.5407435297966003e-01</leafValues></_>
        <_>
          <internalNodes>
            0 -1 38 -302752706 -1210502622 1426064551 -876281555
            1493178566 -384267640 1888644543 771898248</internalNodes>
          <leafValues>
            -6.1533844470977783e-01 3.4132760763168335e-01</leafValues></_></weakClassifiers></_>
    <!-- stage 20 -->
    <_>
      <maxWeakCount>8</maxWeakCount>
      <stageThreshold>-8.0198299884796143e-01</stageThreshold>
      <weakClassifiers>
        <_>
          <internalNodes>
            0 -1 141 -859046334 -1789666685 -1877863932 -698385902
            298283566 406978592 -1064523505 -2137529717</internalNodes>
          <leafValues>
            -5.8506226539611816e-01 3.2867133617401123e-01</leafValues></_>
        <_>
          <internalNodes>
            0 -1 63 2055563995 -594440055 -788475713 -535248744
            2021669541 8491168 -2139051035 -2138536816</internalNodes>
          <leafValues>
            -5.9027945995330811e-01 3.1885960698127747e-01</leafValues></_>
        <_>
          <internalNodes>
            0 -1 76 -73871160 932193684 1409291392 1037816415 -391582789
            -876035965 -905411958 720503919</internalNodes>
          <leafValues>
            -5.3379422426223755e-01 3.6632695794105530e-01</leafValues></_>
        <_>
          <internalNodes>
            0 -1 121 -1708008993 -456077231 167776343 -1442840425
            -1878883928 -1106769792 -1979703246 -1142119936</internalNodes>
          <leafValues>
            -6.2991654872894287e-01 3.3227956295013428e-01</leafValues></_>
        <_>
          <internalNodes>
            0 -1 51 -766366989 -1827663727 151196435 -586776560
            1073750272 -1161297888 1212160459 405839881</internalNodes>
          <leafValues>
            -4.8399001359939575e-01 4.5804303884506226e-01</leafValues></_>
        <_>
          <internalNodes>
            0 -1 54 -4664864 2113924599 -25168083 259481267 -1162153762
            -1078001677 -1342713387 -1607461664</internalNodes>
          <leafValues>
            -4.1614168882369995e-01 5.4922270774841309e-01</leafValues></_>
        <_>
          <internalNodes>
            0 -1 0 503700482 -774864694 1342341571 1896996939 1083343094
            9068691 -932855397 -749470907</internalNodes>
          <leafValues>
            -5.9202647209167480e-01 3.5655865073204041e-01</leafValues></_>
        <_>
          <internalNodes>
            0 -1 21 1494320842 1560526979 1409296586 -737734125
            -67076088 33554497 1199728607 1900772331</internalNodes>
          <leafValues>
            -6.5596228837966919e-01 3.5079866647720337e-01</leafValues></_></weakClassifiers></_>
    <!-- stage 21 -->
    <_>
      <maxWeakCount>9</maxWeakCount>
      <stageThreshold>-1.1634250879287720e+00</stageThreshold>
      <weakClassifiers>
        <_>
          <internalNodes>
            0 -1 90 311865815 705958160 -1795129341 -547749503 874175
            -1165295613 -104289339 -553321728</internalNodes>
          <leafValues>
            -6.4245808124542236e-01 3.5548686981201172e-01</leafValues></_>
        <_>
          <internalNodes>
            0 -1 134 838572763 -990699390 -738147832 -692158325
            -796747382 -234713088 -259478806 -1159408968</internalNodes>
          <leafValues>
            -5.7367217540740967e-01 3.4720093011856079e-01</leafValues></_>
        <_>
          <internalNodes>
            0 -1 157 -250895522 -708476732 102400 -1761410813
            -1056931322 1073938432 1076527619 1935664275</internalNodes>
          <leafValues>
            -6.1743748188018799e-01 3.5036134719848633e-01</leafValues></_>
        <_>
          <internalNodes>
            0 -1 5 -570507042 1885210896 289935372 -783211739 1106215567
            855638153 -1744122978 1431303123</internalNodes>
          <leafValues>
            -4.4164076447486877e-01 4.3908241391181946e-01</leafValues></_>
        <_>
          <internalNodes>
            0 -1 100 -124200197 -1612603688 264232507 -1649469195
            -1426277238 -1091569665 1429660863 -1207007203</internalNodes>
          <leafValues>
            -3.5667493939399719e-01 5.6446444988250732e-01</leafValues></_>
        <_>
          <internalNodes>
            0 -1 101 290483676 1431608204 285264047 1205756061
            -2146424742 -653262203 -1928043773 979577191</internalNodes>
          <leafValues>
            -5.8279722929000854e-01 3.5970506072044373e-01</leafValues></_>
        <_>
          <internalNodes>
            0 -1 150 -495209026 868270080 1126249424 -740992836
            1224745106 32928 -997938755 1169926401</internalNodes>
          <leafValues>
            -5.4631066322326660e-01 3.7064883112907410e-01</leafValues></_>
        <_>
          <internalNodes>
            0 -1 17 1367831478 1090617413 1376786008 -217065386
            1104501120 -1476394876 553693643 1437072030</internalNodes>
          <leafValues>
            -4.8769843578338623e-01 4.3223074078559875e-01</leafValues></_>
        <_>
          <internalNodes>
            0 -1 109 1352532126 -1824325422 -1073704622 1075773450
            -257915486 1091272715 -1862156151 -1072629616</internalNodes>
          <leafValues>
            -6.6518139839172363e-01 3.0169379711151123e-01</leafValues></_></weakClassifiers></_>
    <!-- stage 22 -->
    <_>
      <maxWeakCount>9</maxWeakCount>
      <stageThreshold>-1.1942167282104492e+00</stageThreshold>
      <weakClassifiers>
        <_>
          <internalNodes>
            0 -1 112 1504890076 454770904 1224840795 1380274243
            -1992292224 -117243880 -783253008 -41893420</internalNodes>
          <leafValues>
            -4.8004314303398132e-01 4.1089564561843872e-01</leafValues></_>
        <_>
          <internalNodes>
            0 -1 138 1390113742 754976840 152293634 654409797
            -1065312101 -662634496 38394003 31432987</internalNodes>
          <leafValues>
            -6.1105936765670776e-01 2.9085898399353027e-01</leafValues></_>
        <_>
          <internalNodes>
            0 -1 39 -100607784 -113917488 402657489 361971873
            -1517649684 890798520 910853026 357294594</internalNodes>
          <leafValues>
            -6.1396414041519165e-01 2.8746083378791809e-01</leafValues></_>
        <_>
          <internalNodes>
            0 -1 158 -749235238 1619394560 1441856 -1719369587
            -498883708 -1862098920 1350693540 -714348882</internalNodes>
          <leafValues>
            -4.1134873032569885e-01 4.6709102392196655e-01</leafValues></_>
        <_>
          <internalNodes>
            0 -1 10 -566508342 -1054082262 243226346 -222495126
            -12601393 1128792062 -813957153 -677935537</internalNodes>
          <leafValues>
            -3.9516746997833252e-01 4.8798221349716187e-01</leafValues></_>
        <_>
          <internalNodes>
            0 -1 106 -1409154866 -703454973 152067 -1257228253
            -1676601313 -352321534 53401 -1936661861</internalNodes>
          <leafValues>
            -6.7940610647201538e-01 2.9989612102508545e-01</leafValues></_>
        <_>
          <internalNodes>
            0 -1 84 269544522 538460297 -795672483 -740306792 1344909480
            -1107263488 436293745 -367214332</internalNodes>
          <leafValues>
            -5.6842792034149170e-01 3.5193106532096863e-01</leafValues></_>
        <_>
          <internalNodes>
            0 -1 110 -234872612 1476563012 118848 -1576501180 42500488
            1615855616 1613865923 -1018675046</internalNodes>
          <leafValues>
            -5.3567141294479370e-01 3.7053182721138000e-01</leafValues></_>
        <_>
          <internalNodes>
            0 -1 49 -1654861376 1360003073 343998608 674324609 866814712
            -1383733078 335593603 -2011651582</internalNodes>
          <leafValues>
            -5.1844131946563721e-01 3.8814887404441833e-01</leafValues></_></weakClassifiers></_>
    <!-- stage 23 -->
    <_>
      <maxWeakCount>10</maxWeakCount>
      <stageThreshold>-8.6012810468673706e-01</stageThreshold>
      <weakClassifiers>
        <_>
          <internalNodes>
            0 -1 59 1439379927 1882968423 16912395 -1072463871
            1367941168 -660929450 -400488412 1085210104</internalNodes>
          <leafValues>
            -7.1428573131561279e-01 2.8551530838012695e-01</leafValues></_>
        <_>
          <internalNodes>
            0 -1 139 -988875806 1363607831 50348294 1480966495
            1212861171 808648832 -513752245 63429559</internalNodes>
          <leafValues>
            -5.4356747865676880e-01 3.4301364421844482e-01</leafValues></_>
        <_>
          <internalNodes>
            0 -1 103 2133382615 -39744280 1592745051 -536912531
            -1666124110 -1359316997 202382461 -1690693799</internalNodes>
          <leafValues>
            -3.8590809702873230e-01 5.0830435752868652e-01</leafValues></_>
        <_>
          <internalNodes>
            0 -1 120 -2130456175 -1049554944 335614083 -288438151
            -2147385341 -635437056 16859153 -1904179136</internalNodes>
          <leafValues>
            -7.1266251802444458e-01 3.2406011223793030e-01</leafValues></_>
        <_>
          <internalNodes>
            0 -1 44 -100417447 -804716528 -1006562301 -1995960166
            -1064570874 536870913 -2128555902 1367509214</internalNodes>
          <leafValues>
            -5.4966747760772705e-01 4.0884038805961609e-01</leafValues></_>
        <_>
          <internalNodes>
            0 -1 57 -730717696 -1785036280 16875656 1410596928 814254080
            -2146795360 8425619 -1684334385</internalNodes>
          <leafValues>
            -4.6129235625267029e-01 4.8040074110031128e-01</leafValues></_>
        <_>
          <internalNodes>
            0 -1 114 -542974472 -68161888 1722482431 -1108476545
            -268530672 -704684161 355923153 -922009455</internalNodes>
          <leafValues>
            -3.6786979436874390e-01 6.6670942306518555e-01</leafValues></_>
        <_>
          <internalNodes>
            0 -1 58 1395562375 286494736 -2058304376 -1433783726
            1095813202 356712576 21432483 996245643</internalNodes>
          <leafValues>
            -7.2660195827484131e-01 2.9239541292190552e-01</leafValues></_>
        <_>
          <internalNodes>
            0 -1 24 134274774 -719548386 788529165 1074675994 -696080214
            -284000239 25462786 675996474</internalNodes>
          <leafValues>
            -5.2947276830673218e-01 4.3816483020782471e-01</leafValues></_>
        <_>
          <internalNodes>
            0 -1 13 -750534578 1174880384 1347539172 1376550928
            1094834374 -2012217343 -251473141 2030261395</internalNodes>
          <leafValues>
            -6.2376677989959717e-01 3.8296788930892944e-01</leafValues></_></weakClassifiers></_>
    <!-- stage 24 -->
    <_>
      <maxWeakCount>8</maxWeakCount>
      <stageThreshold>-1.5269412994384766e+00</stageThreshold>
      <weakClassifiers>
        <_>
          <internalNodes>
            0 -1 94 890488246 584573969 -1006627323 -1596555139
            1363280032 -805306360 -939415307 -285292108</internalNodes>
          <leafValues>
            -8.0631577968597412e-01 2.4951140582561493e-01</leafValues></_>
        <_>
          <internalNodes>
            0 -1 29 -250359606 -1591205624 268576836 1343445376
            -800880122 -2012510078 -1860656896 1882436767</internalNodes>
          <leafValues>
            -5.1563304662704468e-01 3.6351227760314941e-01</leafValues></_>
        <_>
          <internalNodes>
            0 -1 119 -2116987712 -1065004987 1347420181 -805268470
            33587336 -265273340 1149456518 -1164409664</internalNodes>
          <leafValues>
            -6.0698699951171875e-01 3.6522907018661499e-01</leafValues></_>
        <_>
          <internalNodes>
            0 -1 149 -196623622 1359056960 406960288 1434648857
            1073811651 1082130560 134391839 126587017</internalNodes>
          <leafValues>
            -5.3639578819274902e-01 4.1692394018173218e-01</leafValues></_>
        <_>
          <internalNodes>
            0 -1 98 -1133375356 -1869053184 957366465 -1253457151
            -771448696 -1744830208 -2147319666 -929518920</internalNodes>
          <leafValues>
            -5.0354546308517456e-01 4.2663851380348206e-01</leafValues></_>
        <_>
          <internalNodes>
            0 -1 7 -805183340 -519964781 -2147384995 -1056712063 82620
            -2004835701 1753350378 1768514447</internalNodes>
          <leafValues>
            -5.6876665353775024e-01 3.8063389062881470e-01</leafValues></_>
        <_>
          <internalNodes>
            0 -1 45 -35365385 -17383940 -521179486 858947396 -866363894
            1065301881 -2001672977 -1213465037</internalNodes>
          <leafValues>
            -4.5363572239875793e-01 5.2268743515014648e-01</leafValues></_>
        <_>
          <internalNodes>
            0 -1 80 1078414023 137760768 285413377 -1761607662
            1108430983 -1064697342 -260046801 -82539516</internalNodes>
          <leafValues>
            -5.4002839326858521e-01 4.5067316293716431e-01</leafValues></_></weakClassifiers></_></stages>
  <features>
    <_>
      <rect>
        0 0 2 4</rect></_>
    <_>
      <rect>
        0 0 3 4</rect></_>
    <_>
      <rect>
        0 0 4 4</rect></_>
    <_>
      <rect>
        0 0 4 6</rect></_>
    <_>
      <rect>
        0 1 2 4</rect></_>
    <_>
      <rect>
        0 2 1 5</rect></_>
    <_>
      <rect>
        0 2 2 4</rect></_>
    <_>
      <rect>
        0 2 3 6</rect></_>
    <_>
      <rect>
        0 3 1 4</rect></_>
    <_>
      <rect>
        0 4 1 5</rect></_>
    <_>
      <rect>
        0 5 1 2</rect></_>
    <_>
      <rect>
        0 6 1 3</rect></_>
    <_>
      <rect>
        0 6 4 4</rect></_>
    <_>
      <rect>
        0 7 1 2</rect></_>
    <_>
      <rect>
        0 8 1 1</rect></_>
    <_>
      <rect>
        0 8 1 2</rect></_>
    <_>
      <rect>
        0 8 2 2</rect></_>
    <_>
      <rect>
        0 8 2 4</rect></_>
    <_>
      <rect>
        0 9 1 1</rect></_>
    <_>
      <rect>
        0 9 2 2</rect></_>
    <_>
      <rect>
        0 10 1 1</rect></_>
    <_>
      <rect>
        0 10 2 2</rect></_>
    <_>
      <rect>
        0 13 4 2</rect></_>
    <_>
      <rect>
        0 14 4 1</rect></_>
    <_>
      <rect>
        0 14 5 2</rect></_>
    <_>
      <rect>
        1 3 5 5</rect></_>
    <_>
      <rect>
        1 3 6 5</rect></_>
    <_>
      <rect>
        1 5 4 5</rect></_>
    <_>
      <rect>
        1 6 1 2</rect></_>
    <_>
      <rect>
        1 6 1 3</rect></_>
    <_>
      <rect>
        1 6 5 4</rect></_>
    <_>
      <rect>
        1 6 6 3</rect></_>
    <_>
      <rect>
        1 7 1 1</rect></_>
    <_>
      <rect>
        1 7 1 3</rect></_>
    <_>
      <rect>
        1 7 2 4</rect></_>
    <_>
      <rect>
        1 9 1 2</rect></_>
    <_>
      <rect>
        1 11 1 1</rect></_>
    <_>
      <rect>
        1 12 2 2</rect></_>
    <_>
      <rect>
        1 12 4 2</rect></_>
    <_>
      <rect>
        1 12 5 1</rect></_>
    <_>
      <rect>
        2 0 6 6</rect></_>
    <_>
      <rect>
        2 4 6 5</rect></_>
    <_>
      <rect>
        2 6 3 4</rect></_>
    <_>
      <rect>
        2 7 6 1</rect></_>
    <_>
      <rect>
        2 8 1 1</rect></_>
    <_>
      <rect>
        2 12 1 1</rect></_>
    <_>
      <rect>
        2 12 2 2</rect></_>
    <_>
      <rect>
        2 12 3 2</rect></_>
    <_>
      <rect>
        3 13 1 1</rect></_>
    <_>
      <rect>
        3 13 2 1</rect></_>
    <_>
      <rect>
        4 0 5 6</rect></_>
    <_>
      <rect>
        4 1 4 2</rect></_>
    <_>
      <rect>
        4 6 1 1</rect></_>
    <_>
      <rect>
        4 7 5 2</rect></_>
    <_>
      <rect>
        4 12 2 1</rect></_>
    <_>
      <rect>
        4 14 3 1</rect></_>
    <_>
      <rect>
        5 0 5 6</rect></_>
    <_>
      <rect>
        5 4 1 1</rect></_>
    <_>
      <rect>
        5 4 5 5</rect></_>
    <_>
      <rect>
        5 6 2 2</rect></_>
    <_>
      <rect>
        5 6 3 2</rect></_>
    <_>
      <rect>
        5 9 3 1</rect></_>
    <_>
      <rect>
        5 10 1 1</rect></_>
    <_>
      <rect>
        5 10 2 1</rect></_>
    <_>
      <rect>
        5 11 3 1</rect></_>
    <_>
      <rect>
        5 11 3 2</rect></_>
    <_>
      <rect>
        5 13 1 1</rect></_>
    <_>
      <rect>
        5 13 3 1</rect></_>
    <_>
      <rect>
        5 13 3 2</rect></_>
    <_>
      <rect>
        5 14 2 1</rect></_>
    <_>
      <rect>
        6 6 3 2</rect></_>
    <_>
      <rect>
        6 7 2 2</rect></_>
    <_>
      <rect>
        6 7 3 2</rect></_>
    <_>
      <rect>
        6 9 3 2</rect></_>
    <_>
      <rect>
        6 11 3 1</rect></_>
    <_>
      <rect>
        6 12 2 1</rect></_>
    <_>
      <rect>
        6 12 2 2</rect></_>
    <_>
      <rect>
        6 13 2 1</rect></_>
    <_>
      <rect>
        6 14 3 1</rect></_>
    <_>
      <rect>
        6 15 3 1</rect></_>
    <_>
      <rect>
        7 5 2 2</rect></_>
    <_>
      <rect>
        7 6 3 3</rect></_>
    <_>
      <rect>
        7 8 3 2</rect></_>
    <_>
      <rect>
        7 9 2 1</rect></_>
    <_>
      <rect>
        7 10 2 1</rect></_>
    <_>
      <rect>
        7 13 3 1</rect></_>
    <_>
      <rect>
        7 14 2 1</rect></_>
    <_>
      <rect>
        7 14 3 1</rect></_>
    <_>
      <rect>
        7 15 2 1</rect></_>
    <_>
      <rect>
        8 4 3 4</rect></_>
    <_>
      <rect>
        8 5 2 2</rect></_>
    <_>
      <rect>
        8 5 2 3</rect></_>
    <_>
      <rect>
        8 6 2 1</rect></_>
    <_>
      <rect>
        8 7 1 2</rect></_>
    <_>
      <rect>
        8 7 2 2</rect></_>
    <_>
      <rect>
        8 8 4 3</rect></_>
    <_>
      <rect>
        8 9 1 1</rect></_>
    <_>
      <rect>
        8 9 2 1</rect></_>
    <_>
      <rect>
        8 11 1 1</rect></_>
    <_>
      <rect>
        8 13 1 1</rect></_>
    <_>
      <rect>
        8 13 2 1</rect></_>
    <_>
      <rect>
        8 13 3 2</rect></_>
    <_>
      <rect>
        8 14 1 1</rect></_>
    <_>
      <rect>
        8 14 2 1</rect></_>
    <_>
      <rect>
        8 14 4 1</rect></_>
    <_>
      <rect>
        8 15 2 1</rect></_>
    <_>
      <rect>
        9 0 3 4</rect></_>
    <_>
      <rect>
        9 7 2 2</rect></_>
    <_>
      <rect>
        9 7 3 2</rect></_>
    <_>
      <rect>
        9 8 1 2</rect></_>
    <_>
      <rect>
        9 9 1 1</rect></_>
    <_>
      <rect>
        9 9 3 2</rect></_>
    <_>
      <rect>
        9 11 2 1</rect></_>
    <_>
      <rect>
        9 11 3 2</rect></_>
    <_>
      <rect>
        9 12 2 1</rect></_>
    <_>
      <rect>
        9 13 1 1</rect></_>
    <_>
      <rect>
        9 13 2 1</rect></_>
    <_>
      <rect>
        9 14 2 1</rect></_>
    <_>
      <rect>
        10 6 3 1</rect></_>
    <_>
      <rect>
        10 7 2 2</rect></_>
    <_>
      <rect>
        10 8 2 1</rect></_>
    <_>
      <rect>
        10 9 2 1</rect></_>
    <_>
      <rect>
        10 10 2 1</rect></_>
    <_>
      <rect>
        10 10 2 2</rect></_>
    <_>
      <rect>
        10 12 1 1</rect></_>
    <_>
      <rect>
        11 5 1 1</rect></_>
    <_>
      <rect>
        11 7 2 1</rect></_>
    <_>
      <rect>
        11 12 3 2</rect></_>
    <_>
      <rect>
        11 13 2 2</rect></_>
    <_>
      <rect>
        12 5 1 1</rect></_>
    <_>
      <rect>
        12 7 1 1</rect></_>
    <_>
      <rect>
        12 8 1 1</rect></_>
    <_>
      <rect>
        12 11 2 2</rect></_>
    <_>
      <rect>
        13 2 2 3</rect></_>
    <_>
      <rect>
        13 6 1 1</rect></_>
    <_>
      <rect>
        13 7 1 1</rect></_>
    <_>
      <rect>
        13 7 2 1</rect></_>
    <_>
      <rect>
        13 8 1 1</rect></_>
    <_>
      <rect>
        13 9 2 2</rect></_>
    <_>
      <rect>
        14 0 2 6</rect></_>
    <_>
      <rect>
        14 1 2 6</rect></_>
    <_>
      <rect>
        14 2 2 4</rect></_>
    <_>
      <rect>
        14 3 2 3</rect></_>
    <_>
      <rect>
        14 4 2 4</rect></_>
    <_>
      <rect>
        14 7 2 2</rect></_>
    <_>
      <rect>
        14 7 2 4</rect></_>
    <_>
      <rect>
        14 8 1 1</rect></_>
    <_>
      <rect>
        14 8 2 3</rect></_>
    <_>
      <rect>
        14 9 2 2</rect></_>
    <_>
      <rect>
        14 10 2 2</rect></_>
    <_>
      <rect>
        14 11 2 3</rect></_>
    <_>
      <rect>
        16 6 1 3</rect></_>
    <_>
      <rect>
        16 7 1 2</rect></_>
    <_>
      <rect>
        17 3 1 4</rect></_>
    <_>
      <rect>
        17 6 1 2</rect></_>
    <_>
      <rect>
        17 7 1 2</rect></_>
    <_>
      <rect>
        17 8 1 1</rect></_>
    <_>
      <rect>
        17 9 1 1</rect></_>
    <_>
      <rect>
        17 9 1 2</rect></_></features></cascade>
</opencv_storage>
